{
  "features_info":
    {
      "float_features":
        [
          {
            "borders":
              [
                11.5
              ],
            "feature_index":0,
            "flat_feature_index":0,
            "has_nans":false,
            "nan_value_treatment":"AsIs"
          },
          {
            "borders":
              [
                0.5
              ],
            "feature_index":1,
            "flat_feature_index":1,
            "has_nans":false,
            "nan_value_treatment":"AsIs"
          }
        ]
    },
  "model_info":
    {
      "catboost_version_info":"Git info:\n    Commit: 114d63c307da7b167d38ccaa1979af1d35d07b97\n    Branch: heads/master\n    Author: ilyzhin <ilyzhin@yandex-team.ru>\n    Summary: fix L2 score on CPU\n    git-svn info:\n    Last Changed Rev: 6307008\n\nOther info:\n    Build by: zomb-ml-platform-msk\n    Top src dir: /Users/zomb-ml-platform-msk/Library/Application Support/Go Agent/pipelines/BuildMaster/catboost.git\n    Top build dir: /Users/zomb-ml-platform-msk/.ya/build\n    Hostname: zomb-ml-platform-msk-macmini.zombie.yandex.net\n    Host information: \n        Darwin zomb-ml-platform-msk-macmini.zombie.yandex.net 17.6.0 Darwin Kernel Version 17.6.0: Tue May  8 15:22:16 PDT 2018; root:xnu-4570.61.1~1/RELEASE_X86_64 x86_64\n\n    ",
      "class_params":
        {
          "class_label_type":"Integer",
          "class_names":
            [
              0,
              1,
              2
            ],
          "class_to_label":
            [
              0,
              1,
              2
            ],
          "classes_count":0
        },
      "model_guid":"1a5b51b4-bc5f1605-bbd0cd1b-4bb92bea",
      "output_options":"{\"name\":\"experiment\",\"verbose\":0,\"test_error_log\":\"test_error.tsv\",\"json_log\":\"catboost_training.json\",\"result_model_file\":\"model\",\"roc_file\":\"\",\"eval_file_name\":\"\",\"use_best_model\":false,\"allow_writing_files\":true,\"prediction_type\":[\"RawFormulaVal\"],\"fstr_internal_file\":\"\",\"output_columns\":[\"SampleId\",\"RawFormulaVal\",\"Label\"],\"snapshot_interval\":600,\"time_left_log\":\"time_left.tsv\",\"fstr_type\":\"FeatureImportance\",\"profile_log\":\"catboost_profile.log\",\"train_dir\":\"catboost_info\",\"learn_error_log\":\"learn_error.tsv\",\"training_options_file\":\"\",\"snapshot_file\":\"experiment.cbsnapshot\",\"save_snapshot\":false,\"model_format\":[\"CatboostBinary\"],\"final_feature_calcer_computation_mode\":\"Default\",\"metric_period\":1,\"output_borders\":\"\",\"final_ctr_computation_mode\":\"Default\",\"best_model_min_trees\":1,\"fstr_regular_file\":\"\"}",
      "params":
        {
          "boosting_options":
            {
              "approx_on_full_history":false,
              "boost_from_average":false,
              "boosting_type":"Plain",
              "fold_len_multiplier":2,
              "fold_permutation_block":0,
              "iterations":20,
              "learning_rate":0.10000000149011612,
              "model_shrink_mode":"Constant",
              "model_shrink_rate":0,
              "od_config":
                {
                  "stop_pvalue":0,
                  "type":"None",
                  "wait_iterations":20
                },
              "permutation_count":4
            },
          "cat_feature_params":
            {
              "combinations_ctrs":
                [
                  {
                    "ctr_binarization":
                      {
                        "border_count":15,
                        "border_type":"Uniform"
                      },
                    "ctr_type":"Borders",
                    "prior_estimation":"No",
                    "priors":
                      [
                        [
                          0,
                          1
                        ],
                        [
                          0.5,
                          1
                        ],
                        [
                          1,
                          1
                        ]
                      ],
                    "target_binarization":
                      {
                        "border_count":2,
                        "border_type":"MinEntropy"
                      }
                  },
                  {
                    "ctr_binarization":
                      {
                        "border_count":15,
                        "border_type":"Uniform"
                      },
                    "ctr_type":"Counter",
                    "prior_estimation":"No",
                    "priors":
                      [
                        [
                          0,
                          1
                        ]
                      ]
                  }
                ],
              "counter_calc_method":"SkipTest",
              "ctr_leaf_count_limit":18446744073709551615,
              "max_ctr_complexity":1,
              "one_hot_max_size":2,
              "per_feature_ctrs":
                {
                },
              "simple_ctrs":
                [
                  {
                    "ctr_binarization":
                      {
                        "border_count":15,
                        "border_type":"Uniform"
                      },
                    "ctr_type":"Borders",
                    "prior_estimation":"No",
                    "priors":
                      [
                        [
                          0,
                          1
                        ],
                        [
                          0.5,
                          1
                        ],
                        [
                          1,
                          1
                        ]
                      ],
                    "target_binarization":
                      {
                        "border_count":2,
                        "border_type":"MinEntropy"
                      }
                  },
                  {
                    "ctr_binarization":
                      {
                        "border_count":15,
                        "border_type":"Uniform"
                      },
                    "ctr_type":"Counter",
                    "prior_estimation":"No",
                    "priors":
                      [
                        [
                          0,
                          1
                        ]
                      ]
                  }
                ],
              "store_all_simple_ctr":false,
              "target_binarization":
                {
                  "border_count":1,
                  "border_type":"MinEntropy"
                }
            },
          "data_processing_options":
            {
              "allow_const_label":false,
              "class_names":
                [
                  0,
                  1,
                  2
                ],
              "class_weights":
                [
                ],
              "classes_count":0,
              "dev_default_value_fraction_for_sparse":0.82999998331069946,
              "dev_group_features":false,
              "dev_leafwise_scoring":false,
              "dev_sparse_array_indexing":"Indices",
              "float_features_binarization":
                {
                  "border_count":254,
                  "border_type":"GreedyLogSum",
                  "nan_mode":"Min"
                },
              "has_time":false,
              "ignored_features":
                [
                ],
              "per_float_feature_quantization":
                {
                },
              "target_border":null,
              "text_processing_options":
                {
                  "dictionaries":
                    [
                      {
                        "dictionary_id":"BiGram",
                        "end_of_sentence_token_policy":"Skip",
                        "end_of_word_token_policy":"Insert",
                        "gram_order":"2",
                        "max_dictionary_size":"50000",
                        "occurrence_lower_bound":"1",
                        "skip_step":"0",
                        "start_token_id":"0",
                        "token_level_type":"Word"
                      },
                      {
                        "dictionary_id":"Word",
                        "end_of_sentence_token_policy":"Skip",
                        "end_of_word_token_policy":"Insert",
                        "gram_order":"1",
                        "max_dictionary_size":"50000",
                        "occurrence_lower_bound":"1",
                        "skip_step":"0",
                        "start_token_id":"0",
                        "token_level_type":"Word"
                      }
                    ],
                  "feature_processing":
                    {
                      "default":
                        [
                          {
                            "dictionaries_names":
                              [
                                "BiGram",
                                "Word"
                              ],
                            "feature_calcers":
                              [
                                "BoW"
                              ],
                            "tokenizers_names":
                              [
                                "Space"
                              ]
                          },
                          {
                            "dictionaries_names":
                              [
                                "Word"
                              ],
                            "feature_calcers":
                              [
                                "NaiveBayes"
                              ],
                            "tokenizers_names":
                              [
                                "Space"
                              ]
                          }
                        ]
                    },
                  "tokenizers":
                    [
                      {
                        "delimiter":" ",
                        "languages":
                          [
                          ],
                        "lemmatizing":"0",
                        "lowercasing":"0",
                        "number_process_policy":"LeaveAsIs",
                        "number_token":"🔢",
                        "separator_type":"ByDelimiter",
                        "skip_empty":"1",
                        "split_by_set":"0",
                        "subtokens_policy":"SingleToken",
                        "token_types":
                          [
                            "Number",
                            "Unknown",
                            "Word"
                          ],
                        "tokenizer_id":"Space"
                      }
                    ]
                }
            },
          "detailed_profile":false,
          "flat_params":
            {
              "depth":2,
              "iterations":20,
              "learning_rate":0.10000000000000001,
              "logging_level":"Silent",
              "loss_function":"MultiClass",
              "random_seed":42,
              "verbose":0
            },
          "logging_level":"Silent",
          "loss_function":
            {
              "params":
                {
                },
              "type":"MultiClass"
            },
          "metadata":
            {
            },
          "metrics":
            {
              "custom_metrics":
                [
                ],
              "eval_metric":
                {
                  "params":
                    {
                    },
                  "type":"MultiClass"
                },
              "objective_metric":
                {
                  "params":
                    {
                    },
                  "type":"MultiClass"
                }
            },
          "random_seed":42,
          "system_options":
            {
              "file_with_hosts":"hosts.txt",
              "node_port":0,
              "node_type":"SingleHost",
              "thread_count":12,
              "used_ram_limit":""
            },
          "task_type":"CPU",
          "tree_learner_options":
            {
              "bayesian_matrix_reg":0.10000000149011612,
              "bootstrap":
                {
                  "bagging_temperature":1,
                  "type":"Bayesian"
                },
              "depth":2,
              "dev_efb_max_buckets":1024,
              "dev_leafwise_approxes":false,
              "dev_score_calc_obj_block_size":5000000,
              "l2_leaf_reg":3,
              "leaf_estimation_backtracking":"AnyImprovement",
              "leaf_estimation_iterations":1,
              "leaf_estimation_method":"Newton",
              "model_size_reg":0.5,
              "monotone_constraints":
                {
                },
              "random_strength":1,
              "rsm":1,
              "sampling_frequency":"PerTree",
              "score_function":"Cosine",
              "sparse_features_conflict_fraction":0
            }
        },
      "train_finish_time":"2020-02-03T17:51:06Z"
    },
  "oblivious_trees":
    [
      {
        "leaf_values":
          [
            0.020000000298023228,
            -0.010000000149011611,
            -0.010000000149011611,
            0.0090909092263741949,
            0.0090909092263741949,
            -0.018181818452748386,
            -0.018181818452748379,
            -0.018181818452748383,
            0.03636363690549678,
            -0.010000000149011611,
            0.020000000298023225,
            -0.010000000149011611
          ],
        "leaf_weights":
          [
            1,
            2,
            2,
            1
          ],
        "splits":
          [
            {
              "border":11.5,
              "float_feature_index":0,
              "split_index":0,
              "split_type":"FloatFeature"
            },
            {
              "border":0.5,
              "float_feature_index":1,
              "split_index":1,
              "split_type":"FloatFeature"
            }
          ]
      },
      {
        "leaf_values":
          [
            0.019779532503702478,
            -0.009889766251851239,
            -0.009889766251851239,
            -0.017791129178317506,
            -0.017791129178317509,
            0.035582258356635005,
            0.0089413556031149519,
            0.0089413556031149501,
            -0.017882711206229897,
            -0.009889766251851239,
            0.019779532503702478,
            -0.009889766251851239
          ],
        "leaf_weights":
          [
            1,
            2,
            2,
            1
          ],
        "splits":
          [
            {
              "border":0.5,
              "float_feature_index":1,
              "split_index":1,
              "split_type":"FloatFeature"
            },
            {
              "border":11.5,
              "float_feature_index":0,
              "split_index":0,
              "split_type":"FloatFeature"
            }
          ]
      },
      {
        "leaf_values":
          [
            0.01956062286631156,
            -0.0097803114331557819,
            -0.0097803114331557819,
            0.0087956517744041153,
            0.0087956517744041188,
            -0.017591303548808231,
            -0.017409085089606865,
            -0.017409085089606861,
            0.034818170179213716,
            -0.0097803114331557802,
            0.019560622866311564,
            -0.0097803114331557837
          ],
        "leaf_weights":
          [
            1,
            2,
            2,
            1
          ],
        "splits":
          [
            {
              "border":11.5,
              "float_feature_index":0,
              "split_index":0,
              "split_type":"FloatFeature"
            },
            {
              "border":0.5,
              "float_feature_index":1,
              "split_index":1,
              "split_type":"FloatFeature"
            }
          ]
      },
      {
        "leaf_values":
          [
            0.024003527340892512,
            -2.3192292796846804e-05,
            -0.023980335048095658,
            -0.023912818189726712,
            0.00061551355295931737,
            0.023297304636767401
          ],
        "leaf_weights":
          [
            3,
            3
          ],
        "splits":
          [
            {
              "border":0.5,
              "float_feature_index":1,
              "split_index":1,
              "split_type":"FloatFeature"
            }
          ]
      },
      {
        "leaf_values":
          [
            0.00081351692218772388,
            -0.023882210015616554,
            0.023068693093428821,
            -0.00021361241769749832,
            0.024030489997789943,
            -0.023816877580092453
          ],
        "leaf_weights":
          [
            3,
            3
          ],
        "splits":
          [
            {
              "border":11.5,
              "float_feature_index":0,
              "split_index":0,
              "split_type":"FloatFeature"
            }
          ]
      },
      {
        "leaf_values":
          [
            0.019067102373132021,
            -0.0094344837760685675,
            -0.0096326185970634515,
            0.008276947578773888,
            0.0082725303489615439,
            -0.016549477927735434,
            -0.016541486283677999,
            -0.016539187804661553,
            0.033080674088339548,
            -0.0094327994086722509,
            0.019069035067059689,
            -0.0096362356583874313
          ],
        "leaf_weights":
          [
            1,
            2,
            2,
            1
          ],
        "splits":
          [
            {
              "border":11.5,
              "float_feature_index":0,
              "split_index":0,
              "split_type":"FloatFeature"
            },
            {
              "border":0.5,
              "float_feature_index":1,
              "split_index":1,
              "split_type":"FloatFeature"
            }
          ]
      },
      {
        "leaf_values":
          [
            0.001082768163087676,
            -0.023008935454715433,
            0.021926167291627763,
            -9.8466155914182663e-05,
            0.023078828744022728,
            -0.022980362588108559
          ],
        "leaf_weights":
          [
            3,
            3
          ],
        "splits":
          [
            {
              "border":11.5,
              "float_feature_index":0,
              "split_index":0,
              "split_type":"FloatFeature"
            }
          ]
      },
      {
        "leaf_values":
          [
            0.018844917006868786,
            -0.009133814756794938,
            -0.0097111022500738498,
            -0.0161176221653168,
            -0.015794565808716521,
            0.031912187974033321,
            0.0082085172790127767,
            0.0077290295078591351,
            -0.015937546786871915,
            -0.0092960703475913568,
            0.018596533564470528,
            -0.0093004632168791814
          ],
        "leaf_weights":
          [
            1,
            2,
            2,
            1
          ],
        "splits":
          [
            {
              "border":0.5,
              "float_feature_index":1,
              "split_index":1,
              "split_type":"FloatFeature"
            },
            {
              "border":11.5,
              "float_feature_index":0,
              "split_index":0,
              "split_type":"FloatFeature"
            }
          ]
      },
      {
        "leaf_values":
          [
            0.022817118027120858,
            -0.00028719968827649979,
            -0.022529918338844369,
            -0.022633176101108661,
            0.001429856587602638,
            0.021203319513506024
          ],
        "leaf_weights":
          [
            3,
            3
          ],
        "splits":
          [
            {
              "border":0.5,
              "float_feature_index":1,
              "split_index":1,
              "split_type":"FloatFeature"
            }
          ]
      },
      {
        "leaf_values":
          [
            0.018375177941031141,
            -0.0090005224018511742,
            -0.0093746555391799654,
            0.0076760918226847627,
            0.0076800923564429224,
            -0.01535618417912768,
            -0.015394724675338185,
            -0.015396395117174931,
            0.03079111979251312,
            -0.0090017665640276436,
            0.018372986237098331,
            -0.0093712196730706826
          ],
        "leaf_weights":
          [
            1,
            2,
            2,
            1
          ],
        "splits":
          [
            {
              "border":11.5,
              "float_feature_index":0,
              "split_index":0,
              "split_type":"FloatFeature"
            },
            {
              "border":0.5,
              "float_feature_index":1,
              "split_index":1,
              "split_type":"FloatFeature"
            }
          ]
      },
      {
        "leaf_values":
          [
            0.018168251691031458,
            -0.008900524967489493,
            -0.0092677267235419612,
            0.0075618659103012867,
            0.0075657963649441327,
            -0.015127662275245417,
            -0.015072419953915889,
            -0.015074039422641133,
            0.030146459376557019,
            -0.0089017366243718272,
            0.018166081917797422,
            -0.0092643452934255913
          ],
        "leaf_weights":
          [
            1,
            2,
            2,
            1
          ],
        "splits":
          [
            {
              "border":11.5,
              "float_feature_index":0,
              "split_index":0,
              "split_type":"FloatFeature"
            },
            {
              "border":0.5,
              "float_feature_index":1,
              "split_index":1,
              "split_type":"FloatFeature"
            }
          ]
      },
      {
        "leaf_values":
          [
            0.0018127399448193951,
            -0.021504863925854479,
            0.019692123981035078,
            -0.00016289064871096131,
            0.021648684399810911,
            -0.02148579375109996
          ],
        "leaf_weights":
          [
            3,
            3
          ],
        "splits":
          [
            {
              "border":11.5,
              "float_feature_index":0,
              "split_index":0,
              "split_type":"FloatFeature"
            }
          ]
      },
      {
        "leaf_values":
          [
            0.0018761455443478425,
            -0.021059133060206289,
            0.019182987515858434,
            -4.0890745658463424e-05,
            0.021078612576468737,
            -0.021037721830810287
          ],
        "leaf_weights":
          [
            3,
            3
          ],
        "splits":
          [
            {
              "border":11.5,
              "float_feature_index":0,
              "split_index":0,
              "split_type":"FloatFeature"
            }
          ]
      },
      {
        "leaf_values":
          [
            0.017932737557968592,
            -0.0084551166649763868,
            -0.0094776208929922019,
            0.0075921612659624804,
            0.0066954307920467004,
            -0.014287592058009184,
            -0.01464035517207877,
            -0.014078749926524243,
            0.028719105098603006,
            -0.0087333921817579433,
            0.017477145421502416,
            -0.0087437532397444707
          ],
        "leaf_weights":
          [
            1,
            2,
            2,
            1
          ],
        "splits":
          [
            {
              "border":11.5,
              "float_feature_index":0,
              "split_index":0,
              "split_type":"FloatFeature"
            },
            {
              "border":0.5,
              "float_feature_index":1,
              "split_index":1,
              "split_type":"FloatFeature"
            }
          ]
      },
      {
        "leaf_values":
          [
            0.017730097793597469,
            -0.0083631910826764879,
            -0.0093669067109209744,
            0.0074823934581926231,
            0.0066020185685202303,
            -0.01408441202671285,
            -0.014337902250423638,
            -0.013792847049576692,
            0.028130749300000341,
            -0.008634698557518217,
            0.017279569343079365,
            -0.0086448707855611463
          ],
        "leaf_weights":
          [
            1,
            2,
            2,
            1
          ],
        "splits":
          [
            {
              "border":11.5,
              "float_feature_index":0,
              "split_index":0,
              "split_type":"FloatFeature"
            },
            {
              "border":0.5,
              "float_feature_index":1,
              "split_index":1,
              "split_type":"FloatFeature"
            }
          ]
      },
      {
        "leaf_values":
          [
            0.017529596056670028,
            -0.0082721271120454274,
            -0.0092574689446246021,
            0.0073750699177622643,
            0.0065108702960977958,
            -0.013885940213860045,
            -0.014043923015827426,
            -0.013514759180392024,
            0.027558682196219448,
            -0.0085371028736479504,
            0.017084193337099065,
            -0.0085470904634511128
          ],
        "leaf_weights":
          [
            1,
            2,
            2,
            1
          ],
        "splits":
          [
            {
              "border":11.5,
              "float_feature_index":0,
              "split_index":0,
              "split_type":"FloatFeature"
            },
            {
              "border":0.5,
              "float_feature_index":1,
              "split_index":1,
              "split_type":"FloatFeature"
            }
          ]
      },
      {
        "leaf_values":
          [
            0.0023376314795025537,
            -0.019762322142614235,
            0.01742469066311168,
            8.3170595924164363e-05,
            0.019776681620652825,
            -0.019859852216576997
          ],
        "leaf_weights":
          [
            3,
            3
          ],
        "splits":
          [
            {
              "border":11.5,
              "float_feature_index":0,
              "split_index":0,
              "split_type":"FloatFeature"
            }
          ]
      },
      {
        "leaf_values":
          [
            0.020977354201371406,
            -0.00065116008880321881,
            -0.02032619411256819,
            -0.020445481577825435,
            0.0025606695949980181,
            0.017884811982827421
          ],
        "leaf_weights":
          [
            3,
            3
          ],
        "splits":
          [
            {
              "border":0.5,
              "float_feature_index":1,
              "split_index":1,
              "split_type":"FloatFeature"
            }
          ]
      },
      {
        "leaf_values":
          [
            0.0025008375370153351,
            -0.01933639847839546,
            0.01683556094138014,
            2.1206190656559432e-05,
            0.019317855855681649,
            -0.019339062046338219
          ],
        "leaf_weights":
          [
            3,
            3
          ],
        "splits":
          [
            {
              "border":11.5,
              "float_feature_index":0,
              "split_index":0,
              "split_type":"FloatFeature"
            }
          ]
      },
      {
        "leaf_values":
          [
            0.017052234006140313,
            -0.0078415716813663803,
            -0.0092106623247739366,
            0.0070541913073932788,
            0.0058254696959374073,
            -0.012879661003330677,
            -0.013348097056049722,
            -0.012617472188657048,
            0.025965569244706766,
            -0.0082090996561603041,
            0.016420441678401974,
            -0.0082113420222416737
          ],
        "leaf_weights":
          [
            1,
            2,
            2,
            1
          ],
        "splits":
          [
            {
              "border":11.5,
              "float_feature_index":0,
              "split_index":0,
              "split_type":"FloatFeature"
            },
            {
              "border":0.5,
              "float_feature_index":1,
              "split_index":1,
              "split_type":"FloatFeature"
            }
          ]
      }
    ],
  "scale_and_bias":
    [
      1,
      0
    ]
}